{
  "version": 1,
  "trainedGames": 524,
  "meta": {
    "inputSize": 12,
    "hiddenSize": 8
  },
  "params": {
    "w1": [
      [
        0.597322860869755,
        0.5423945232467658,
        0.5013517778163125,
        0.7272510295152042,
        -0.15487232285832986,
        0.0027500914454846605,
        -0.03998063745225075,
        -0.12526480370174814,
        -0.07786551295313818,
        -0.190349454742781,
        -0.0012835111759462612,
        -0.4992506520824402
      ],
      [
        0.6795361970727585,
        0.5572019540811707,
        0.49130483767283956,
        0.7928077054166534,
        0.007424538531537171,
        -0.05140076624691306,
        -0.009385586181568645,
        -0.10349088553449805,
        -0.05979256533028998,
        -0.2539482151511496,
        0.06823527402312413,
        -0.5699135937259571
      ],
      [
        0.697084936773029,
        0.5667952875211711,
        0.4406084178593341,
        0.32166232359590974,
        -0.010898215973779476,
        0.20709763298373143,
        0.1870748352163822,
        0.1222200789910115,
        0.16340510680205855,
        0.2534471915765985,
        0.009796690131305913,
        0.17268432239649734
      ],
      [
        0.7239296411378324,
        0.6754595321527758,
        0.40030760571061996,
        0.8429552102646428,
        -0.0706486451592672,
        -0.1414449843246988,
        -0.08850352408490697,
        -0.05587527826743208,
        0.10086436727731136,
        -0.1491523526639038,
        -0.10191606730058189,
        -0.7195276005766985
      ],
      [
        0.4775393447637372,
        0.5184382389039357,
        0.2607557431929835,
        0.1048864322626419,
        0.05884084069450425,
        0.03897656861434288,
        -0.06473853174718612,
        0.004690833236652897,
        0.014094228503868185,
        0.07291764816491782,
        0.1042423601290299,
        -0.007061796924652907
      ],
      [
        0.732011214801953,
        0.6118275959853076,
        0.37993350631770834,
        0.8635634105300428,
        -0.0808300082924106,
        -0.15088630995916813,
        -0.020891501265053774,
        -0.09913883168339228,
        0.05011472192170678,
        -0.19028425084290693,
        -0.03127239296737171,
        -0.5829398831421068
      ],
      [
        0.6059723545325381,
        0.4675456117361138,
        0.18889789645120103,
        0.10307579032968456,
        0.10415963154815275,
        -0.03796677425418837,
        0.11398122719506752,
        0.12118419407872888,
        0.06519224130579573,
        0.036646870764660555,
        -0.07204481517626894,
        0.1415249624772095
      ],
      [
        0.8815234919739214,
        0.7469524953199916,
        0.5819586851622084,
        1.018128638424842,
        -0.05439435851824106,
        0.008923421713121245,
        0.03740523751260854,
        -0.06725332935782108,
        0.11860038525075817,
        -0.27446298921333684,
        -0.11894822930926384,
        -1.0175512515307907
      ]
    ],
    "b1": [
      -0.5720780423422823,
      -0.6758419608129341,
      0.29152361931499715,
      -0.7171841567170866,
      0.10828832299888852,
      -0.7124120006676476,
      0.14234778267066975,
      -0.9401721209290564
    ],
    "w2": [
      0.9627028068873744,
      1.06097735826315,
      -0.573782443858862,
      1.1336058218501632,
      0.0951392955230737,
      1.0871883816947798,
      -0.05708550172930303,
      1.4404538680625736
    ],
    "b2": -0.9607239428326751
  }
}