{
  "version": 1,
  "trainedGames": 2084,
  "meta": {
    "inputSize": 12,
    "hiddenSize": 8
  },
  "params": {
    "w1": [
      [
        0.6430103825706847,
        0.5858447584903805,
        0.5448020130599276,
        0.9235166207631101,
        -0.12485402320015487,
        0.043051286070672705,
        -0.0389431220292036,
        -0.07891744833551141,
        -0.09454023794991154,
        -0.03378649421988992,
        0.004141371033614138,
        -0.7000255759045951
      ],
      [
        0.73809039109747,
        0.6132786275758599,
        0.5473815111675289,
        1.0139370339845677,
        0.037076617946629566,
        -0.006272054760707919,
        -0.010588837068112955,
        -0.05064323618573355,
        -0.07881139472174743,
        -0.07409189268081878,
        0.07361540677737319,
        -0.7866849079070372
      ],
      [
        0.7098029844052691,
        0.5795343095359178,
        0.4533474398740814,
        0.32148132863427953,
        -0.007225175570785223,
        0.20985795235074386,
        0.19251270179775398,
        0.12743003129694427,
        0.16806443170941862,
        0.25919963672791957,
        0.01015322199278774,
        0.18988326165632016
      ],
      [
        0.7984970978840921,
        0.7473445239703369,
        0.47219259752817605,
        1.0876020694626047,
        -0.027455040305741186,
        -0.0785269241978736,
        -0.08187197753996155,
        0.01183358097957441,
        0.06607349739316878,
        0.04720810292153379,
        -0.09671658310075273,
        -0.9463046037534194
      ],
      [
        0.4724163716985253,
        0.5132579929675046,
        0.2555754972565547,
        0.10990069728697224,
        0.0571744756644243,
        0.037962743691631336,
        -0.06815283883312069,
        0.0024515166760831265,
        0.010597255967697812,
        0.07340451900931556,
        0.10413070494358732,
        -0.020578363852616986
      ],
      [
        0.7972268996171906,
        0.6745375514709803,
        0.4426434618033812,
        1.0938659559967532,
        -0.04191599084562479,
        -0.09293448417141159,
        -0.018144022689764713,
        -0.036379310753643736,
        0.019876386062313785,
        -0.00483063041093992,
        -0.026616250569960982,
        -0.803060145489848
      ],
      [
        0.6104278903242044,
        0.4720151689712863,
        0.1933674536863701,
        0.10301775688002758,
        0.10547488376665416,
        -0.03690630296066871,
        0.11583615762256613,
        0.12313165173099677,
        0.06678590777598149,
        0.038807320716646054,
        -0.07196497189936904,
        0.14754309946836316
      ],
      [
        0.9871578494484702,
        0.8492013324512862,
        0.6842075222935029,
        1.3329439788446928,
        -0.009817315332317951,
        0.07414882614668024,
        0.036271638946047215,
        0.007041836229462588,
        0.0745641374912006,
        -0.011972529736370755,
        -0.11104741632324787,
        -1.296464142764234
      ]
    ],
    "b1": [
      -0.7728529661644375,
      -0.8926132749940142,
      0.3087225585748178,
      -0.9439611598938075,
      0.09477175607092421,
      -0.9325322630153889,
      0.14836591966182341,
      -1.2190850121624988
    ],
    "w2": [
      1.335793902102765,
      1.469872725960485,
      -0.5377837787216339,
      1.5918568831561695,
      0.19573148575888796,
      1.5159971593523867,
      0.011432530797050547,
      2.014464531471588
    ],
    "b2": -0.9394884128304918
  }
}